FANN_FLO_2.1
num_layers=3
learning_rate=0.700000
connection_rate=1.000000
network_type=0
learning_momentum=0.000000
training_algorithm=2
train_error_function=1
train_stop_function=0
cascade_output_change_fraction=0.010000
quickprop_decay=-0.000100
quickprop_mu=1.750000
rprop_increase_factor=1.200000
rprop_decrease_factor=0.500000
rprop_delta_min=0.000000
rprop_delta_max=50.000000
rprop_delta_zero=0.100000
cascade_output_stagnation_epochs=12
cascade_candidate_change_fraction=0.010000
cascade_candidate_stagnation_epochs=12
cascade_max_out_epochs=150
cascade_min_out_epochs=50
cascade_max_cand_epochs=150
cascade_min_cand_epochs=50
cascade_num_candidate_groups=2
bit_fail_limit=3.49999994039535520000e-001
cascade_candidate_limit=1.00000000000000000000e+003
cascade_weight_multiplier=4.00000005960464480000e-001
cascade_activation_functions_count=10
cascade_activation_functions=3 5 7 8 10 11 14 15 16 17 
cascade_activation_steepnesses_count=4
cascade_activation_steepnesses=2.50000000000000000000e-001 5.00000000000000000000e-001 7.50000000000000000000e-001 1.00000000000000000000e+000 
layer_sizes=6 3 4 
scale_included=0
neurons (num_inputs, activation_function, activation_steepness)=(0, 0, 0.00000000000000000000e+000) (0, 0, 0.00000000000000000000e+000) (0, 0, 0.00000000000000000000e+000) (0, 0, 0.00000000000000000000e+000) (0, 0, 0.00000000000000000000e+000) (0, 0, 0.00000000000000000000e+000) (6, 5, 5.00000000000000000000e-001) (6, 5, 5.00000000000000000000e-001) (0, 5, 0.00000000000000000000e+000) (3, 5, 5.00000000000000000000e-001) (3, 5, 5.00000000000000000000e-001) (3, 5, 5.00000000000000000000e-001) (0, 5, 0.00000000000000000000e+000) 
connections (connected_to_neuron, weight)=(0, 7.21974313259124760000e-001) (1, 1.83754825592041020000e+000) (2, 7.59292170405387880000e-002) (3, -1.44230246543884280000e+000) (4, -2.83535885810852050000e+000) (5, 1.39110609889030460000e-001) (0, 8.41827750205993650000e-001) (1, -1.46524000167846680000e+000) (2, 8.92988443374633790000e-001) (3, -1.53061342239379880000e+000) (4, 2.45077848434448240000e+000) (5, 1.33635491132736210000e-001) (6, 2.00659990310668950000e+000) (7, 1.87152206897735600000e+000) (8, -1.33937105536460880000e-001) (6, -1.91452860832214360000e+000) (7, 1.56407207250595090000e-002) (8, 1.73892998695373540000e+000) (6, 2.13054399937391280000e-002) (7, -2.41554236412048340000e+000) (8, 2.39309287071228030000e+000) 
