FANN_FLO_2.1
num_layers=3
learning_rate=0.700000
connection_rate=1.000000
network_type=0
learning_momentum=0.000000
training_algorithm=2
train_error_function=1
train_stop_function=0
cascade_output_change_fraction=0.010000
quickprop_decay=-0.000100
quickprop_mu=1.750000
rprop_increase_factor=1.200000
rprop_decrease_factor=0.500000
rprop_delta_min=0.000000
rprop_delta_max=50.000000
rprop_delta_zero=0.100000
cascade_output_stagnation_epochs=12
cascade_candidate_change_fraction=0.010000
cascade_candidate_stagnation_epochs=12
cascade_max_out_epochs=150
cascade_min_out_epochs=50
cascade_max_cand_epochs=150
cascade_min_cand_epochs=50
cascade_num_candidate_groups=2
bit_fail_limit=3.49999994039535520000e-001
cascade_candidate_limit=1.00000000000000000000e+003
cascade_weight_multiplier=4.00000005960464480000e-001
cascade_activation_functions_count=10
cascade_activation_functions=3 5 7 8 10 11 14 15 16 17 
cascade_activation_steepnesses_count=4
cascade_activation_steepnesses=2.50000000000000000000e-001 5.00000000000000000000e-001 7.50000000000000000000e-001 1.00000000000000000000e+000 
layer_sizes=6 4 4 
scale_included=0
neurons (num_inputs, activation_function, activation_steepness)=(0, 0, 0.00000000000000000000e+000) (0, 0, 0.00000000000000000000e+000) (0, 0, 0.00000000000000000000e+000) (0, 0, 0.00000000000000000000e+000) (0, 0, 0.00000000000000000000e+000) (0, 0, 0.00000000000000000000e+000) (6, 5, 5.00000000000000000000e-001) (6, 5, 5.00000000000000000000e-001) (6, 5, 5.00000000000000000000e-001) (0, 5, 0.00000000000000000000e+000) (4, 5, 5.00000000000000000000e-001) (4, 5, 5.00000000000000000000e-001) (4, 5, 5.00000000000000000000e-001) (0, 5, 0.00000000000000000000e+000) 
connections (connected_to_neuron, weight)=(0, -3.06990218162536620000e+000) (1, 7.73220717906951900000e-001) (2, 3.18922072649002080000e-001) (3, -1.64077129364013670000e+001) (4, 6.29186363220214840000e+001) (5, -1.13800764083862300000e+000) (0, -1.16769409179687500000e+000) (1, -8.56898248195648190000e-001) (2, -2.32317104935646060000e-001) (3, 1.19247269630432130000e+000) (4, 7.08407461643218990000e-001) (5, 1.29054870605468750000e+001) (0, -1.50000000000000000000e+003) (1, 1.06341361999511720000e+002) (2, 1.41396813964843750000e+003) (3, 1.50000000000000000000e+003) (4, -5.97521850585937500000e+002) (5, -1.80949916839599610000e+001) (6, 3.75395655632019040000e+000) (7, -2.20784974098205570000e+000) (8, -1.16944774985313420000e-001) (9, -2.30580925941467290000e+000) (6, -3.66291451454162600000e+000) (7, 2.15266680717468260000e+000) (8, -1.60990321636199950000e+000) (9, 3.97525548934936520000e+000) (6, -3.02929019927978520000e+000) (7, -1.05261628050357100000e-003) (8, 5.85381841659545900000e+000) (9, 8.86986160278320310000e+000) 
