FANN_FLO_2.1
num_layers=3
learning_rate=0.700000
connection_rate=1.000000
network_type=0
learning_momentum=0.000000
training_algorithm=2
train_error_function=1
train_stop_function=0
cascade_output_change_fraction=0.010000
quickprop_decay=-0.000100
quickprop_mu=1.750000
rprop_increase_factor=1.200000
rprop_decrease_factor=0.500000
rprop_delta_min=0.000000
rprop_delta_max=50.000000
rprop_delta_zero=0.100000
cascade_output_stagnation_epochs=12
cascade_candidate_change_fraction=0.010000
cascade_candidate_stagnation_epochs=12
cascade_max_out_epochs=150
cascade_min_out_epochs=50
cascade_max_cand_epochs=150
cascade_min_cand_epochs=50
cascade_num_candidate_groups=2
bit_fail_limit=3.49999994039535520000e-001
cascade_candidate_limit=1.00000000000000000000e+003
cascade_weight_multiplier=4.00000005960464480000e-001
cascade_activation_functions_count=10
cascade_activation_functions=3 5 7 8 10 11 14 15 16 17 
cascade_activation_steepnesses_count=4
cascade_activation_steepnesses=2.50000000000000000000e-001 5.00000000000000000000e-001 7.50000000000000000000e-001 1.00000000000000000000e+000 
layer_sizes=6 3 4 
scale_included=0
neurons (num_inputs, activation_function, activation_steepness)=(0, 0, 0.00000000000000000000e+000) (0, 0, 0.00000000000000000000e+000) (0, 0, 0.00000000000000000000e+000) (0, 0, 0.00000000000000000000e+000) (0, 0, 0.00000000000000000000e+000) (0, 0, 0.00000000000000000000e+000) (6, 5, 5.00000000000000000000e-001) (6, 5, 5.00000000000000000000e-001) (0, 5, 0.00000000000000000000e+000) (3, 5, 5.00000000000000000000e-001) (3, 5, 5.00000000000000000000e-001) (3, 5, 5.00000000000000000000e-001) (0, 5, 0.00000000000000000000e+000) 
connections (connected_to_neuron, weight)=(0, 1.49971838378906250000e+003) (1, -1.49894860839843750000e+003) (2, -6.82115478515625000000e+002) (3, -1.39046069335937500000e+003) (4, 1.49977514648437500000e+003) (5, 8.62562316894531250000e+002) (0, -3.95064926147460940000e+000) (1, -1.37166032791137700000e+001) (2, -7.38990163803100590000e+000) (3, 2.30376853942871090000e+001) (4, 1.50360336303710940000e+001) (5, 3.77216219902038570000e+000) (6, 1.96954179555177690000e-002) (7, -2.04633116722106930000e+000) (8, 2.00897812843322750000e+000) (6, 4.74189567565917970000e+000) (7, 4.84671449661254880000e+000) (8, 3.12502607703208920000e-002) (6, -1.29374134540557860000e+000) (7, 1.25412372872233390000e-002) (8, 1.24690735340118410000e+000) 
